<?xml version="1.0"?>
<opencv_storage>
<cascade>
  <stageType>BOOST</stageType>
  <featureType>LBP</featureType>
  <height>24</height>
  <width>24</width>
  <stageParams>
    <boostType>GAB</boostType>
    <minHitRate>9.9500000476837158e-01</minHitRate>
    <maxFalseAlarm>5.0000000000000000e-01</maxFalseAlarm>
    <weightTrimRate>9.4999999999999996e-01</weightTrimRate>
    <maxDepth>1</maxDepth>
    <maxWeakCount>100</maxWeakCount></stageParams>
  <featureParams>
    <maxCatCount>256</maxCatCount>
    <featSize>1</featSize></featureParams>
  <stageNum>20</stageNum>
  <stages>
    <!-- stage 0 -->
    <_>
      <maxWeakCount>2</maxWeakCount>
      <stageThreshold>5.5429506301879883e-01</stageThreshold>
      <weakClassifiers>
        <_>
          <internalNodes>
            0 -1 138 -1073692544 16384 1073751168 52224 -2143240064
            -2147422096 -323714836 1223675071</internalNodes>
          <leafValues>
            -3.8109105825424194e-01 9.7666782140731812e-01</leafValues></_>
        <_>
          <internalNodes>
            0 -1 35 -150864385 822161826 -1078198277 855834890 238144767
            688922683 1797910015 589504703</internalNodes>
          <leafValues>
            -4.2237281799316406e-01 9.5548820495605469e-01</leafValues></_></weakClassifiers></_>
    <!-- stage 1 -->
    <_>
      <maxWeakCount>4</maxWeakCount>
      <stageThreshold>-3.9217895269393921e-01</stageThreshold>
      <weakClassifiers>
        <_>
          <internalNodes>
            0 -1 110 1610579455 2147481567 2080373759 1073438015
            27983872 536289571 59834368 18022419</internalNodes>
          <leafValues>
            -2.5908997654914856e-01 9.6808516979217529e-01</leafValues></_>
        <_>
          <internalNodes>
            0 -1 23 -184495104 -244262128 -642056705 -9175277 1145095168
            -76153488 -562692097 -4105</internalNodes>
          <leafValues>
            -4.2809084057807922e-01 9.1683262586593628e-01</leafValues></_>
        <_>
          <internalNodes>
            0 -1 109 -570425345 -9175073 -524289 1602183159 -1191292673
            -9729 1793212671 2079408639</internalNodes>
          <leafValues>
            -3.9911031723022461e-01 8.5473048686981201e-01</leafValues></_>
        <_>
          <internalNodes>
            0 -1 63 -1430716931 -1103560713 -65537 -1079443460
            -1342317059 -1 -21446663 -1363616267</internalNodes>
          <leafValues>
            -5.5972868204116821e-01 6.7326802015304565e-01</leafValues></_></weakClassifiers></_>
    <!-- stage 2 -->
    <_>
      <maxWeakCount>5</maxWeakCount>
      <stageThreshold>1.7242781817913055e-01</stageThreshold>
      <weakClassifiers>
        <_>
          <internalNodes>
            0 -1 34 1073741823 942160062 1069547519 668187 2071986175
            1073741823 2146926335 3093499</internalNodes>
          <leafValues>
            -1.8374884128570557e-01 9.6059429645538330e-01</leafValues></_>
        <_>
          <internalNodes>
            0 -1 96 -285282700 -16843522 -268501004 -293671180 -8454188
            -16777217 -268505232 -16843212</internalNodes>
          <leafValues>
            -4.5118361711502075e-01 8.7833857536315918e-01</leafValues></_>
        <_>
          <internalNodes>
            0 -1 132 49480431 2147483647 2012677119 -1057 1442535103
            2147450879 -2105345 -1</internalNodes>
          <leafValues>
            -4.7427347302436829e-01 8.1579238176345825e-01</leafValues></_>
        <_>
          <internalNodes>
            0 -1 10 -2049 -2099201 -201277280 -152375054 -3282057 -4777
            -33492124 -526473</internalNodes>
          <leafValues>
            -4.7964671254158020e-01 6.4455491304397583e-01</leafValues></_>
        <_>
          <internalNodes>
            0 -1 50 -268719441 -270013005 -1948538193 -2098305
            -1886404725 -1350845777 -1393587285 -1041</internalNodes>
          <leafValues>
            -4.5908695459365845e-01 6.3707888126373291e-01</leafValues></_></weakClassifiers></_>
    <!-- stage 3 -->
    <_>
      <maxWeakCount>7</maxWeakCount>
      <stageThreshold>-2.5366321206092834e-01</stageThreshold>
      <weakClassifiers>
        <_>
          <internalNodes>
            0 -1 112 1577057279 1543364605 1476385919 1610612703
            44761098 192628431 51314699 469697359</internalNodes>
          <leafValues>
            3.0591433867812157e-02 9.6485567092895508e-01</leafValues></_>
        <_>
          <internalNodes>
            0 -1 37 -75498497 991637635 -47712257 823114735 1026554879
            1057712987 2071658495 993001471</internalNodes>
          <leafValues>
            -3.4558087587356567e-01 8.8397932052612305e-01</leafValues></_>
        <_>
          <internalNodes>
            0 -1 91 -16842768 -71368898 -16843812 -8978650 -1123340
            -1114121 -286330888 -285540428</internalNodes>
          <leafValues>
            -5.7966303825378418e-01 6.9324302673339844e-01</leafValues></_>
        <_>
          <internalNodes>
            0 -1 127 -10249 -4728033 -1 -13 -609493761 -525 -375535107
            -546089647</internalNodes>
          <leafValues>
            -4.4820359349250793e-01 6.8932890892028809e-01</leafValues></_>
        <_>
          <internalNodes>
            0 -1 134 -91226886 -863963068 -792528806 -56837634
            -352652034 -930302846 -185600001 -84148225</internalNodes>
          <leafValues>
            -4.6571907401084900e-01 5.5958384275436401e-01</leafValues></_>
        <_>
          <internalNodes>
            0 -1 1 -268439553 -806879289 -34135053 -6292757 201304015
            243266775 1207384055 2011166679</internalNodes>
          <leafValues>
            -4.5330739021301270e-01 5.1527214050292969e-01</leafValues></_>
        <_>
          <internalNodes>
            0 -1 26 -16777217 -15206589 -762907984 -233375078 -6035899
            -148777089 -1040723948 -185073929</internalNodes>
          <leafValues>
            -4.9424687027931213e-01 4.4368106126785278e-01</leafValues></_></weakClassifiers></_>
    <!-- stage 4 -->
    <_>
      <maxWeakCount>7</maxWeakCount>
      <stageThreshold>-4.1004264354705811e-01</stageThreshold>
      <weakClassifiers>
        <_>
          <internalNodes>
            0 -1 114 1409245183 436206543 1610554847 1577058301
            163512747 469650431 309789455 1610569599</internalNodes>
          <leafValues>
            1.6338284313678741e-01 9.6311467885971069e-01</leafValues></_>
        <_>
          <internalNodes>
            0 -1 27 2147483647 1068474894 2147483647 755969284 -1048577
            -3145793 2146434559 1060109247</internalNodes>
          <leafValues>
            -2.8941640257835388e-01 8.6198908090591431e-01</leafValues></_>
        <_>
          <internalNodes>
            0 -1 100 -16843148 -151322625 -1125712132 -286595122
            -603988619 -268435457 -19337724 -17830298</internalNodes>
          <leafValues>
            -5.3660941123962402e-01 6.7377823591232300e-01</leafValues></_>
        <_>
          <internalNodes>
            0 -1 111 -8390891 -4325593 -257 -1052907 -1 -1048577
            -536870915 -269039</internalNodes>
          <leafValues>
            -4.6810990571975708e-01 6.8390786647796631e-01</leafValues></_>
        <_>
          <internalNodes>
            0 -1 144 1249510143 -2097153 230452991 -67478081 2130644733
            -12293 -84086785 -4097</internalNodes>
          <leafValues>
            -4.6458798646926880e-01 5.8444261550903320e-01</leafValues></_>
        <_>
          <internalNodes>
            0 -1 16 -136314881 -18433 -1032664334 -86843406 -883429529
            -9175705 -722217742 -134743049</internalNodes>
          <leafValues>
            -5.0347983837127686e-01 5.1833343505859375e-01</leafValues></_>
        <_>
          <internalNodes>
            0 -1 165 -16777377 1415014167 -434636165 196543 -59817452
            1460228695 -622920805 1920203391</internalNodes>
          <leafValues>
            -5.1227033138275146e-01 4.7327890992164612e-01</leafValues></_></weakClassifiers></_>
    <!-- stage 5 -->
    <_>
      <maxWeakCount>7</maxWeakCount>
      <stageThreshold>-4.5358839631080627e-01</stageThreshold>
      <weakClassifiers>
        <_>
          <internalNodes>
            0 -1 154 1073679871 -1073783297 -1073741825 -1073741825
            679419049 -1073790977 184487423 721296895</internalNodes>
          <leafValues>
            -5.6594606488943100e-02 9.5431667566299438e-01</leafValues></_>
        <_>
          <internalNodes>
            0 -1 71 690172723 1069547317 1069494579 -65 -1074790401
            -1073741825 -1079001089 -1</internalNodes>
          <leafValues>
            -1.6831958293914795e-01 8.9441639184951782e-01</leafValues></_>
        <_>
          <internalNodes>
            0 -1 59 -44717397 -581571347 1465756203 2111826607 -16781393
            -547935445 -111154261 -35657013</internalNodes>
          <leafValues>
            -4.2396569252014160e-01 7.4515181779861450e-01</leafValues></_>
        <_>
          <internalNodes>
            0 -1 85 -16842753 -1 -1 -8454273 -805376337 -4194305
            -287585841 -391450897</internalNodes>
          <leafValues>
            -4.3527299165725708e-01 6.8111741542816162e-01</leafValues></_>
        <_>
          <internalNodes>
            0 -1 148 -2273 2000289615 -151520257 1929378811 1298136959
            1767370551 -5125 2004877311</internalNodes>
          <leafValues>
            -4.7924995422363281e-01 5.8038938045501709e-01</leafValues></_>
        <_>
          <internalNodes>
            0 -1 7 -134742078 -202902670 -1255796006 -4196142 -79572224
            -113000080 -609894955 -13</internalNodes>
          <leafValues>
            -5.7119500637054443e-01 4.7832012176513672e-01</leafValues></_>
        <_>
          <internalNodes>
            0 -1 164 -136321025 -285221553 -18876422 -520949822
            -541073409 -809788499 -470289168 -452984841</internalNodes>
          <leafValues>
            -4.9901935458183289e-01 4.6288779377937317e-01</leafValues></_></weakClassifiers></_>
    <!-- stage 6 -->
    <_>
      <maxWeakCount>8</maxWeakCount>
      <stageThreshold>-4.1139043867588043e-02</stageThreshold>
      <weakClassifiers>
        <_>
          <internalNodes>
            0 -1 137 1073794216 56532 -21823493 1977679835 -86704902
            -52625473 -203232518 -4263937</internalNodes>
          <leafValues>
            8.9278087019920349e-02 9.5340031385421753e-01</leafValues></_>
        <_>
          <internalNodes>
            0 -1 56 -1 -1145308230 -33554433 957608891 -67633153 -9221
            -71311425 994046879</internalNodes>
          <leafValues>
            -2.4170194566249847e-01 8.4062910079956055e-01</leafValues></_>
        <_>
          <internalNodes>
            0 -1 120 -201596417 -4456513 -1867951105 -134218753
            1910981759 -4489745 -135266561 -2305</internalNodes>
          <leafValues>
            -3.2454749941825867e-01 7.7249801158905029e-01</leafValues></_>
        <_>
          <internalNodes>
            0 -1 0 -270534657 -957416449 -71830017 -536872961 56621055
            67627935 1373075191 1476392951</internalNodes>
          <leafValues>
            -4.2377847433090210e-01 6.0474807024002075e-01</leafValues></_>
        <_>
          <internalNodes>
            0 -1 69 -1113610566 -1614824262 -68436009 -1075846153
            -1168397334 -1079078469 -1417827926 -1880119156</internalNodes>
          <leafValues>
            -4.6578747034072876e-01 5.4475444555282593e-01</leafValues></_>
        <_>
          <internalNodes>
            0 -1 19 -67633321 -254548009 -15480048 -1059006016
            -143132331 -220857117 -2097327 -254673055</internalNodes>
          <leafValues>
            -4.7177547216415405e-01 4.7808146476745605e-01</leafValues></_>
        <_>
          <internalNodes>
            0 -1 88 -149948501 8839314 -1017286349 -33556521 1641001947
            9109499 1912402943 -69</internalNodes>
          <leafValues>
            -4.3771287798881531e-01 5.0214940309524536e-01</leafValues></_>
        <_>
          <internalNodes>
            0 -1 135 -21342351 -2460769 -551562243 -1073817089 -18089475
            -6578017 -35857927 -5349899</internalNodes>
          <leafValues>
            -4.4513827562332153e-01 4.2090746760368347e-01</leafValues></_></weakClassifiers></_>
    <!-- stage 7 -->
    <_>
      <maxWeakCount>8</maxWeakCount>
      <stageThreshold>-9.4425432384014130e-02</stageThreshold>
      <weakClassifiers>
        <_>
          <internalNodes>
            0 -1 163 0 134252560 -1347962369 -1900240104 -572809317
            -1074003969 -1149304833 -1074005041</internalNodes>
          <leafValues>
            1.1248918250203133e-02 9.4707584381103516e-01</leafValues></_>
        <_>
          <internalNodes>
            0 -1 101 -285234682 -461377537 -288972256 -285217041
            -143182075 -9586833 -151525632 -68161617</internalNodes>
          <leafValues>
            -2.6224410533905029e-01 8.2659870386123657e-01</leafValues></_>
        <_>
          <internalNodes>
            0 -1 79 -18940417 -67209259 -229377 -1143013889 -1073759303
            -67117575 -69635 -1430716708</internalNodes>
          <leafValues>
            -4.6937903761863708e-01 6.7889291048049927e-01</leafValues></_>
        <_>
          <internalNodes>
            0 -1 30 -61601 -62769 -46719169 -6355521 -28374681 -4390789
            -6328449 -32897</internalNodes>
          <leafValues>
            -5.1664769649505615e-01 5.6509697437286377e-01</leafValues></_>
        <_>
          <internalNodes>
            0 -1 99 -724762625 -871606129 -208690789 -4491893 -728433412
            -53153281 -178914821 -16385</internalNodes>
          <leafValues>
            -4.8880448937416077e-01 5.0448423624038696e-01</leafValues></_>
        <_>
          <internalNodes>
            0 -1 18 -270537749 -288429074 1979019863 -3617 1244120047
            1274936719 1474163703 -538970121</internalNodes>
          <leafValues>
            -3.9527356624603271e-01 5.3818851709365845e-01</leafValues></_>
        <_>
          <internalNodes>
            0 -1 168 -536879361 2078275807 -619318373 -220532226
            -1084245163 1913844291 -36963394 1994386431</internalNodes>
          <leafValues>
            -4.6637815237045288e-01 4.0182071924209595e-01</leafValues></_>
        <_>
          <internalNodes>
            0 -1 151 -1061093904 -256351844 -34799619 -2722340
            -1466378309 -22493441 -1159659841 -117637745</internalNodes>
          <leafValues>
            -3.6952504515647888e-01 5.1277488470077515e-01</leafValues></_></weakClassifiers></_>
    <!-- stage 8 -->
    <_>
      <maxWeakCount>9</maxWeakCount>
      <stageThreshold>3.1192120164632797e-02</stageThreshold>
      <weakClassifiers>
        <_>
          <internalNodes>
            0 -1 32 -1073723904 -553976082 -1109467777 -272385
            1073746944 -8393513 -178956972 -1</internalNodes>
          <leafValues>
            2.8571428731083870e-02 9.4709533452987671e-01</leafValues></_>
        <_>
          <internalNodes>
            0 -1 54 -704664901 -30977 -705090886 -402675030 -16453
            -20545 -553801174 -268457462</internalNodes>
          <leafValues>
            -2.8551787137985229e-01 8.1864804029464722e-01</leafValues></_>
        <_>
          <internalNodes>
            0 -1 174 -1347440705 245366271 -1572926819 -1902117921
            -1358983511 -1431310865 -1594914134 -1427111941</internalNodes>
          <leafValues>
            -4.6253696084022522e-01 6.2271732091903687e-01</leafValues></_>
        <_>
          <internalNodes>
            0 -1 119 -67116433 -212092305 1612761855 -134744065
            1936140117 1987408957 -156501249 -17</internalNodes>
          <leafValues>
            -4.7135180234909058e-01 5.5738765001296997e-01</leafValues></_>
        <_>
          <internalNodes>
            0 -1 146 -1 -857740801 -723649344 -925567268 -67109889
            -50332745 -50333472 -117440517</internalNodes>
          <leafValues>
            -5.0655293464660645e-01 4.8130598664283752e-01</leafValues></_>
        <_>
          <internalNodes>
            0 -1 162 -134217857 2004877167 -707011585 1893703679
            -142869739 1934049027 -74448897 2013003775</internalNodes>
          <leafValues>
            -5.0614076852798462e-01 4.5376655459403992e-01</leafValues></_>
        <_>
          <internalNodes>
            0 -1 57 -13470604 -12775051 -8953857 -10627243 -179010124
            -33556943 -69207044 -67896107</internalNodes>
          <leafValues>
            -4.0680712461471558e-01 5.5465757846832275e-01</leafValues></_>
        <_>
          <internalNodes>
            0 -1 9 -16777409 -117443281 2126221634 1623391834 -213647579
            1920450818 -381684942 -260572045</internalNodes>
          <leafValues>
            -5.0145673751831055e-01 3.7047255039215088e-01</leafValues></_>
        <_>
          <internalNodes>
            0 -1 147 -1092742027 -289778723 -781017089 -109918849
            -67208348 -1091704189 -1075316163 -74307</internalNodes>
          <leafValues>
            -4.5732596516609192e-01 3.9262431859970093e-01</leafValues></_></weakClassifiers></_>
    <!-- stage 9 -->
    <_>
      <maxWeakCount>9</maxWeakCount>
      <stageThreshold>6.8578250706195831e-02</stageThreshold>
      <weakClassifiers>
        <_>
          <internalNodes>
            0 -1 38 923221791 1069529406 801061311 1068443451 998193151
            1069489919 1069498335 1067396511</internalNodes>
          <leafValues>
            1.1540295928716660e-01 9.4906371831893921e-01</leafValues></_>
        <_>
          <internalNodes>
            0 -1 80 -134217809 -1048593 -682819700 -1059922 -138543185
            -1 -79299832 -1049974</internalNodes>
          <leafValues>
            -9.7743980586528778e-02 8.3872455358505249e-01</leafValues></_>
        <_>
          <internalNodes>
            0 -1 143 -64854 -55373 461060319 -63093 -72413285 -312665
            -67958017 -315509</internalNodes>
          <leafValues>
            -3.7213727831840515e-01 6.6169077157974243e-01</leafValues></_>
        <_>
          <internalNodes>
            0 -1 73 -16779265 -11409 -520814595 -991122529 -147592329
            -81285626 -182387855 1145372471</internalNodes>
          <leafValues>
            -6.3495498895645142e-01 4.1071909666061401e-01</leafValues></_>
        <_>
          <internalNodes>
            0 -1 3 -269484033 40039163 -682363905 -8001 1292618751
            195279 1465381815 1439169535</internalNodes>
          <leafValues>
            -4.9089863896369934e-01 4.6042484045028687e-01</leafValues></_>
        <_>
          <internalNodes>
            0 -1 66 -1493262859 -17540609 -1615637537 -35861025 -6292235
            -67120485 -2490375 -1078398984</internalNodes>
          <leafValues>
            -4.8528853058815002e-01 4.4666352868080139e-01</leafValues></_>
        <_>
          <internalNodes>
            0 -1 177 -134217729 -353377521 -1575049 -255149089
            -574098576 -50481182 -638068400 -186712080</internalNodes>
          <leafValues>
            -4.6618351340293884e-01 4.3515181541442871e-01</leafValues></_>
        <_>
          <internalNodes>
            0 -1 72 -639109201 27505663 -707397763 -34089505 1803673823
            -1946956903 1367965919 -536871989</internalNodes>
          <leafValues>
            -4.5188254117965698e-01 4.0765351057052612e-01</leafValues></_>
        <_>
          <internalNodes>
            0 -1 166 -161481697 1176454927 -614475561 5568370 1509376512
            1413564672 -531922359 1346895487</internalNodes>
          <leafValues>
            -5.2142131328582764e-01 3.2259935140609741e-01</leafValues></_></weakClassifiers></_>
    <!-- stage 10 -->
    <_>
      <maxWeakCount>10</maxWeakCount>
      <stageThreshold>-1.4806064963340759e-01</stageThreshold>
      <weakClassifiers>
        <_>
          <internalNodes>
            0 -1 142 13107916 435362783 165481113 469699583 200150766
            1072635903 255528622 1073417199</internalNodes>
          <leafValues>
            -9.3841642141342163e-02 9.4380986690521240e-01</leafValues></_>
        <_>
          <internalNodes>
            0 -1 51 286732576 892435899 -1212254957 -1183745 869515263
            1069285375 -336666901 -4369</internalNodes>
          <leafValues>
            -2.4824424088001251e-01 8.1759196519851685e-01</leafValues></_>
        <_>
          <internalNodes>
            0 -1 151 -1071059204 -55003181 -574357507 -206852
            -2002190337 -16973889 -39911425 -352387077</internalNodes>
          <leafValues>
            -3.0341982841491699e-01 7.3392438888549805e-01</leafValues></_>
        <_>
          <internalNodes>
            0 -1 65 -67108865 -135169 -131073 -243408666 -131089 -8449
            -101056561 -5426</internalNodes>
          <leafValues>
            -3.3345356583595276e-01 6.5687555074691772e-01</leafValues></_>
        <_>
          <internalNodes>
            0 -1 48 -143264272 -9048172 -1312570192 -573048149
            1431436277 -74329439 -108156757 -34622465</internalNodes>
          <leafValues>
            -5.7299107313156128e-01 3.7661543488502502e-01</leafValues></_>
        <_>
          <internalNodes>
            0 -1 102 -285217266 -386148353 -286726482 -288407297
            -114296969 -214327991 -6685897 -13329</internalNodes>
          <leafValues>
            -5.6518197059631348e-01 3.5662490129470825e-01</leafValues></_>
        <_>
          <internalNodes>
            0 -1 20 -340793429 -492140310 -1784339600 -271940910
            -349702677 104972499 -748686337 -30977</internalNodes>
          <leafValues>
            -3.3399972319602966e-01 5.6433784961700439e-01</leafValues></_>
        <_>
          <internalNodes>
            0 -1 175 -67110913 1157030527 -1028135930 1725359807
            -843319833 1083953847 -454602556 -991430409</internalNodes>
          <leafValues>
            -4.2572650313377380e-01 3.7959128618240356e-01</leafValues></_>
        <_>
          <internalNodes>
            0 -1 136 -1410321551 -25248521 -579299873 -8889889
            -1284390923 -1095793689 -71745603 -249348</internalNodes>
          <leafValues>
            -3.9204499125480652e-01 3.7641766667366028e-01</leafValues></_>
        <_>
          <internalNodes>
            0 -1 5 -486551797 719817583 -187542974 1492640391 1634144768
            1087570725 1096380448 1977614198</internalNodes>
          <leafValues>
            -3.9680162072181702e-01 3.5606670379638672e-01</leafValues></_></weakClassifiers></_>
    <!-- stage 11 -->
    <_>
      <maxWeakCount>11</maxWeakCount>
      <stageThreshold>-1.0303966701030731e-01</stageThreshold>
      <weakClassifiers>
        <_>
          <internalNodes>
            0 -1 125 2147217403 -1 -1 -1 536742088 -4211718 143395016
            535759563</internalNodes>
          <leafValues>
            2.6218810677528381e-01 9.4974070787429810e-01</leafValues></_>
        <_>
          <internalNodes>
            0 -1 84 -1427705937 -1 -1 -16842817 -1430548561 -2098195
            -1360007249 -1968510225</internalNodes>
          <leafValues>
            -1.3660995662212372e-01 8.1594163179397583e-01</leafValues></_>
        <_>
          <internalNodes>
            0 -1 47 -2555952 -204817 -712179716 -537067524 -112 -4214886
            -5308652 -7602176</internalNodes>
          <leafValues>
            -4.3156751990318298e-01 5.9071409702301025e-01</leafValues></_>
        <_>
          <internalNodes>
            0 -1 140 -50528514 1414855391 -258879525 -41172273 -66817
            -34610229 -236983361 -262209</internalNodes>
          <leafValues>
            -5.7680296897888184e-01 4.2822328209877014e-01</leafValues></_>
        <_>
          <internalNodes>
            0 -1 93 -285278284 -456363061 -58800180 -285679634
            -1677723243 -357162969 -67124731 -286266433</internalNodes>
          <leafValues>
            -6.2828272581100464e-01 3.3442589640617371e-01</leafValues></_>
        <_>
          <internalNodes>
            0 -1 116 -59900417 -81939473 -1284547105 -149542610
            -939266050 -16315901 -96206865 -547920125</internalNodes>
          <leafValues>
            -3.7473040819168091e-01 5.6582659482955933e-01</leafValues></_>
        <_>
          <internalNodes>
            0 -1 12 -282596353 -319881617 2103178111 -136578849
            1197445759 265267669 1945887479 2013265915</internalNodes>
          <leafValues>
            -4.6520844101905823e-01 4.1188940405845642e-01</leafValues></_>
        <_>
          <internalNodes>
            0 -1 11 -536871049 -211829897 -195898794 -1338839006
            -1650529519 -30416605 -450430960 -198053312</internalNodes>
          <leafValues>
            -6.0503584146499634e-01 2.7401483058929443e-01</leafValues></_>
        <_>
          <internalNodes>
            0 -1 170 -118017004 -86034147 907483356 1045953499 -88111104
            -1131843552 -1438864728 -1431633985</internalNodes>
          <leafValues>
            -4.5371004939079285e-01 3.6223185062408447e-01</leafValues></_>
        <_>
          <internalNodes>
            0 -1 107 586361399 1792550227 -1901600803 -285294125
            -74630827 -4257521 -299209 -24603</internalNodes>
          <leafValues>
            -4.5998236536979675e-01 3.1618115305900574e-01</leafValues></_>
        <_>
          <internalNodes>
            0 -1 52 -287313025 -824799346 -1144597514 -17914126
            -1521552393 -1899247090 94438612 -85003020</internalNodes>
          <leafValues>
            -4.1587078571319580e-01 3.4449422359466553e-01</leafValues></_></weakClassifiers></_>
    <!-- stage 12 -->
    <_>
      <maxWeakCount>11</maxWeakCount>
      <stageThreshold>-8.2484588027000427e-02</stageThreshold>
      <weakClassifiers>
        <_>
          <internalNodes>
            0 -1 64 1783147208 -286462258 -217112 -353441078 -1136692
            -327796 -1245304 -288560440</internalNodes>
          <leafValues>
            -2.0689655095338821e-02 9.4128453731536865e-01</leafValues></_>
        <_>
          <internalNodes>
            0 -1 152 147850493 1006337021 -68289025 -33089 733481726
            -1073857378 -70721 -262213</internalNodes>
          <leafValues>
            -2.2715118527412415e-01 7.9679042100906372e-01</leafValues></_>
        <_>
          <internalNodes>
            0 -1 108 -69212345 -536901361 -131105 -10481 -17827841
            -79905 -257 -67143933</internalNodes>
          <leafValues>
            -3.4358656406402588e-01 6.5806901454925537e-01</leafValues></_>
        <_>
          <internalNodes>
            0 -1 46 2002124144 -934919 -2147237500 -33556049 862452667
            -1041 -71063125 -67110161</internalNodes>
          <leafValues>
            -6.2067717313766479e-01 3.8996607065200806e-01</leafValues></_>
        <_>
          <internalNodes>
            0 -1 169 -52442020 -2285601 -151916323 -236739587 -17408
            -195639800 -17121656 -263173</internalNodes>
          <leafValues>
            -3.7146604061126709e-01 5.4726248979568481e-01</leafValues></_>
        <_>
          <internalNodes>
            0 -1 58 -709110283 1367707953 -671088641 1431688479
            -262212195 -706105151 -118096145 -1336149537</internalNodes>
          <leafValues>
            -4.0266716480255127e-01 4.6670120954513550e-01</leafValues></_>
        <_>
          <internalNodes>
            0 -1 176 -268439569 -330660914 -959973670 -285279434
            -958398473 -1063611145 -990809904 -989856009</internalNodes>
          <leafValues>
            -4.7043013572692871e-01 3.6973485350608826e-01</leafValues></_>
        <_>
          <internalNodes>
            0 -1 103 -285235670 -929381233 -360780150 -288576290
            -507006939 -1543487200 -146886863 -2298948</internalNodes>
          <leafValues>
            -5.8885842561721802e-01 2.7575224637985229e-01</leafValues></_>
        <_>
          <internalNodes>
            0 -1 41 -1369036509 -287396877 1466910471 -268581425
            -1356777611 -271857985 -340968649 -4097</internalNodes>
          <leafValues>
            -4.0113818645477295e-01 3.7088087201118469e-01</leafValues></_>
        <_>
          <internalNodes>
            0 -1 8 -137363665 -231476641 -1225355242 -1340017150
            2101570304 -130032571 -934187248 -260970665</internalNodes>
          <leafValues>
            -4.7582358121871948e-01 3.0722081661224365e-01</leafValues></_>
        <_>
          <internalNodes>
            0 -1 44 -2105540588 -2353579 -48834689 -5247265 -1165195343
            -1078285757 -1614069761 1069227281</internalNodes>
          <leafValues>
            -4.4446325302124023e-01 3.2267102599143982e-01</leafValues></_></weakClassifiers></_>
    <!-- stage 13 -->
    <_>
      <maxWeakCount>12</maxWeakCount>
      <stageThreshold>-1.3834327459335327e-01</stageThreshold>
      <weakClassifiers>
        <_>
          <internalNodes>
            0 -1 22 386367487 95364800 789524415 252644398 2134865919
            999241727 1058881535 792669054</internalNodes>
          <leafValues>
            2.0862561464309692e-01 9.4380182027816772e-01</leafValues></_>
        <_>
          <internalNodes>
            0 -1 157 -1064786944 -322564892 -1247236 -18073448 -89457667
            -17039938 -269828100 -1433748520</internalNodes>
          <leafValues>
            -1.3869898021221161e-01 7.9979145526885986e-01</leafValues></_>
        <_>
          <internalNodes>
            0 -1 128 -168297483 -33637633 -9488897 -65539 465299445
            -68422146 935031805 -240268</internalNodes>
          <leafValues>
            -4.7765707969665527e-01 5.4553651809692383e-01</leafValues></_>
        <_>
          <internalNodes>
            0 -1 70 -577639505 -707410555 -573447913 -36309671
            -2013201985 -24112424 -656868353 -3475505</internalNodes>
          <leafValues>
            -4.7786718606948853e-01 4.5934221148490906e-01</leafValues></_>
        <_>
          <internalNodes>
            0 -1 98 -587333633 -857147345 -1153071101 -541496437
            -1072369476 -855852357 1429308420 -588121153</internalNodes>
          <leafValues>
            -4.8936334252357483e-01 3.9726227521896362e-01</leafValues></_>
        <_>
          <internalNodes>
            0 -1 167 -67121649 -740593381 -2136286981 1383855999
            -5264832 2068520018 -429196546 -75760897</internalNodes>
          <leafValues>
            -3.5660731792449951e-01 5.2694237232208252e-01</leafValues></_>
        <_>
          <internalNodes>
            0 -1 53 -145489926 -543715101 -685573638 -1537 -480187424
            -1093500656 1841364436 -1060393</internalNodes>
          <leafValues>
            -4.2124155163764954e-01 3.9763826131820679e-01</leafValues></_>
        <_>
          <internalNodes>
            0 -1 4 -269488273 735284751 -1256903898 1867449967
            1267414279 16122127 -137407145 -269496481</internalNodes>
          <leafValues>
            -4.1787531971931458e-01 3.8813489675521851e-01</leafValues></_>
        <_>
          <internalNodes>
            0 -1 68 -710937131 -707198760 -1619133601 -35654221
            -1196651363 -1713401445 -1646163784 -1936750433</internalNodes>
          <leafValues>
            -3.0938473343849182e-01 4.8399639129638672e-01</leafValues></_>
        <_>
          <internalNodes>
            0 -1 173 -16780765 538388146 -2004767345 -1562445570
            -116475613 402720279 -1209013589 -1025</internalNodes>
          <leafValues>
            -3.9616817235946655e-01 3.7236875295639038e-01</leafValues></_>
        <_>
          <internalNodes>
            0 -1 75 247201813 -1362353313 1737528669 -1086418503
            -1077708496 -23882 -5379211 -21038179</internalNodes>
          <leafValues>
            -4.5864003896713257e-01 3.0730488896369934e-01</leafValues></_>
        <_>
          <internalNodes>
            0 -1 121 -220207474 2095817007 1611171279 1917774011
            1987130628 1903886352 -82777089 -75841585</internalNodes>
          <leafValues>
            -3.9460846781730652e-01 3.3804348111152649e-01</leafValues></_></weakClassifiers></_>
    <!-- stage 14 -->
    <_>
      <maxWeakCount>13</maxWeakCount>
      <stageThreshold>-1.1017502844333649e-01</stageThreshold>
      <weakClassifiers>
        <_>
          <internalNodes>
            0 -1 71 524288 1068113328 119808288 1069359036 -1103124545
            -1073758529 737096638 -1073741841</internalNodes>
          <leafValues>
            3.1541958451271057e-01 9.4552856683731079e-01</leafValues></_>
        <_>
          <internalNodes>
            0 -1 131 1078248652 -707665921 8949707 -167796801
            -1065289217 -70453265 -85200913 -5243137</internalNodes>
          <leafValues>
            -2.3668004572391510e-01 7.7247190475463867e-01</leafValues></_>
        <_>
          <internalNodes>
            0 -1 150 -151003393 -69739673 -823438337 -134243457
            -356540240 -7603551 -1997143856 -385877249</internalNodes>
          <leafValues>
            -2.9264876246452332e-01 6.2861478328704834e-01</leafValues></_>
        <_>
          <internalNodes>
            0 -1 28 -276106254 -288707902 1028219890 -3276752
            -1089996297 -1392475725 -1078479881 -64043</internalNodes>
          <leafValues>
            -4.5831131935119629e-01 4.5698052644729614e-01</leafValues></_>
        <_>
          <internalNodes>
            0 -1 94 -271587414 -892411689 -308813536 -925900306
            2079718323 1532346754 -202384573 -2098289</internalNodes>
          <leafValues>
            -5.5739265680313110e-01 3.6391744017601013e-01</leafValues></_>
        <_>
          <internalNodes>
            0 -1 45 -296700912 -2305 -2228769 -1165825 -1077956832
            -270337 -208666692 -1361601</internalNodes>
          <leafValues>
            -4.0574657917022705e-01 4.4240233302116394e-01</leafValues></_>
        <_>
          <internalNodes>
            0 -1 2 -68420609 -288427638 -138948097 -2107286 460062687
            1134160575 933229491 2013265919</internalNodes>
          <leafValues>
            -4.3287041783332825e-01 3.8253074884414673e-01</leafValues></_>
        <_>
          <internalNodes>
            0 -1 33 -33 -10753045 -1009544873 -1102910190 -77080316
            -119805102 -363145100 -29164682</internalNodes>
          <leafValues>
            -4.4868347048759460e-01 3.3603712916374207e-01</leafValues></_>
        <_>
          <internalNodes>
            0 -1 69 -1141006160 -1076391935 1363532760 -135800678
            -1244812357 -1232566823 -1731482629 -1646286673</internalNodes>
          <leafValues>
            -3.8462999463081360e-01 3.8912519812583923e-01</leafValues></_>
        <_>
          <internalNodes>
            0 -1 67 1215714421 1882199383 -1717841153 1069042557
            -4719111 -67390915 -356533315 976781305</internalNodes>
          <leafValues>
            -5.2711260318756104e-01 2.4766252934932709e-01</leafValues></_>
        <_>
          <internalNodes>
            0 -1 153 -1 -364198957 -2139638128 -353970984 -358876678
            -292066149 1753731824 -522062862</internalNodes>
          <leafValues>
            -4.6695879101753235e-01 2.9105412960052490e-01</leafValues></_>
        <_>
          <internalNodes>
            0 -1 117 -84163953 -75765253 -223100277 1945887163 310068300
            -209739920 -1560674914 -202379030</internalNodes>
          <leafValues>
            -3.2878601551055908e-01 4.0269160270690918e-01</leafValues></_>
        <_>
          <internalNodes>
            0 -1 123 137887760 -188469036 -1633027331 -1611136292
            -1164428815 -1142415702 445201402 263719228</internalNodes>
          <leafValues>
            -5.0367689132690430e-01 2.5626376271247864e-01</leafValues></_></weakClassifiers></_>
    <!-- stage 15 -->
    <_>
      <maxWeakCount>13</maxWeakCount>
      <stageThreshold>-3.7213775515556335e-01</stageThreshold>
      <weakClassifiers>
        <_>
          <internalNodes>
            0 -1 83 -830673360 -290521346 -318837004 -419500338
            -67764432 -16650 -4784352 -522263008</internalNodes>
          <leafValues>
            2.9580574482679367e-02 9.3770241737365723e-01</leafValues></_>
        <_>
          <internalNodes>
            0 -1 43 -575489 -1451343889 -1 -1073927201 -268697665
            -201037 -4194305 -1073791105</internalNodes>
          <leafValues>
            -1.1214451491832733e-01 7.8213745355606079e-01</leafValues></_>
        <_>
          <internalNodes>
            0 -1 115 -34414593 -741164293 -101617665 -3121 1073801967
            -212822041 1633811199 -682146817</internalNodes>
          <leafValues>
            -3.0451378226280212e-01 6.3046073913574219e-01</leafValues></_>
        <_>
          <internalNodes>
            0 -1 161 -2099713 1937503615 -1089086465 853014271 -76808341
            2136677379 -6299649 1996488703</internalNodes>
          <leafValues>
            -4.4639834761619568e-01 4.4968989491462708e-01</leafValues></_>
        <_>
          <internalNodes>
            0 -1 172 -1346392897 -1499626337 739607711 -1906333233
            804487999 -1161524856 601729803 -1342178305</internalNodes>
          <leafValues>
            -6.0095030069351196e-01 3.1621000170707703e-01</leafValues></_>
        <_>
          <internalNodes>
            0 -1 21 -889724929 -36649478 1596967287 -3276606 -1171538949
            -1629251894 -291537925 -44681</internalNodes>
          <leafValues>
            -3.2826560735702515e-01 5.3941869735717773e-01</leafValues></_>
        <_>
          <internalNodes>
            0 -1 89 -942677118 9103266 361078272 -706873908 -201923859
            8503952 1372045727 -975320099</internalNodes>
          <leafValues>
            -4.9069938063621521e-01 2.8403100371360779e-01</leafValues></_>
        <_>
          <internalNodes>
            0 -1 118 -203953926 -711780205 1174411407 1976763424
            142749435 -70760375 -93754646 -14069910</internalNodes>
          <leafValues>
            -3.9347723126411438e-01 3.8432514667510986e-01</leafValues></_>
        <_>
          <internalNodes>
            0 -1 25 -1 -136330049 -533409254 -1339887374 -356782235
            -58996706 -1069226912 -193725886</internalNodes>
          <leafValues>
            -4.5177569985389709e-01 3.4360408782958984e-01</leafValues></_>
        <_>
          <internalNodes>
            0 -1 90 -1204809040 -249195 1528354679 -1076551715
            -1189037128 -1409435000 -1164436547 531302681</internalNodes>
          <leafValues>
            -4.0067663788795471e-01 3.3087873458862305e-01</leafValues></_>
        <_>
          <internalNodes>
            0 -1 106 -1494537193 542612077 -865084033 1813238527
            -872678859 -3214760 -4985028 -21172369</internalNodes>
          <leafValues>
            -4.1923403739929199e-01 3.2026389241218567e-01</leafValues></_>
        <_>
          <internalNodes>
            0 -1 15 -421529621 -224413345 1107448178 1073924082
            -1566968063 -214455535 -284690112 -254279817</internalNodes>
          <leafValues>
            -4.3687438964843750e-01 3.0134186148643494e-01</leafValues></_>
        <_>
          <internalNodes>
            0 -1 156 -1027562208 -106036651 -173080579 -537051143
            -1482050561 -1138725 -73687041 -1346429761</internalNodes>
          <leafValues>
            -2.5537905097007751e-01 5.2340704202651978e-01</leafValues></_></weakClassifiers></_>
    <!-- stage 16 -->
    <_>
      <maxWeakCount>14</maxWeakCount>
      <stageThreshold>-9.6170261502265930e-02</stageThreshold>
      <weakClassifiers>
        <_>
          <internalNodes>
            0 -1 29 1963450367 19079172 2131623935 118424076 2004129723
            1059487657 1970788351 789018411</internalNodes>
          <leafValues>
            2.7112770080566406e-01 9.4130897521972656e-01</leafValues></_>
        <_>
          <internalNodes>
            0 -1 144 140116190 -2140417 182849277 -34660374 -74495286
            -21407746 -72631554 -4456709</internalNodes>
          <leafValues>
            -1.1459753662347794e-01 7.8322964906692505e-01</leafValues></_>
        <_>
          <internalNodes>
            0 -1 86 -603980801 -1285 -1 -529169 -524353 -1 -4195410
            -68164982</internalNodes>
          <leafValues>
            -2.1823000907897949e-01 6.9203889369964600e-01</leafValues></_>
        <_>
          <internalNodes>
            0 -1 179 -136323313 1400893903 1757661659 1888739035
            -80743936 2001144338 -25100750 1937767039</internalNodes>
          <leafValues>
            -4.7433194518089294e-01 4.3073502182960510e-01</leafValues></_>
        <_>
          <internalNodes>
            0 -1 57 -139158508 -2920107 -1083187201 -8193 -1066255
            -71306027 -1145063188 -129</internalNodes>
          <leafValues>
            -3.4733423590660095e-01 5.4171681404113770e-01</leafValues></_>
        <_>
          <internalNodes>
            0 -1 17 -1347441757 -1416942846 -806355173 -3468541
            219131834 209904266 212328123 -808452157</internalNodes>
          <leafValues>
            -3.2481133937835693e-01 5.1068472862243652e-01</leafValues></_>
        <_>
          <internalNodes>
            0 -1 180 -136315905 -430988593 -850006302 -957407107
            -671354121 -1023485268 -457969552 -187172105</internalNodes>
          <leafValues>
            -4.2401167750358582e-01 3.5005864500999451e-01</leafValues></_>
        <_>
          <internalNodes>
            0 -1 62 -539492353 -177178795 -1819246757 -213569275
            -1089994753 -1143872109 -1927067809 -12233449</internalNodes>
          <leafValues>
            -3.2567727565765381e-01 4.4783738255500793e-01</leafValues></_>
        <_>
          <internalNodes>
            0 -1 133 -790831106 -707680641 1979601047 862999075
            -1069233938 -665802616 -85395473 -10290513</internalNodes>
          <leafValues>
            -4.6409535408020020e-01 2.9935204982757568e-01</leafValues></_>
        <_>
          <internalNodes>
            0 -1 130 -788332621 -545158667 -1852721665 -19561 70382704
            -71841305 79844661 -536914604</internalNodes>
          <leafValues>
            -4.7451323270797729e-01 2.8307461738586426e-01</leafValues></_>
        <_>
          <internalNodes>
            0 -1 88 -202391133 2810786 295555344 -3026176 1929560297
            1116776595 1435099387 -138527</internalNodes>
          <leafValues>
            -4.2611902952194214e-01 2.9830935597419739e-01</leafValues></_>
        <_>
          <internalNodes>
            0 -1 82 -22547340 537191532 -448397985 -1926236755
            -249827019 -1321881339 1734343442 791673631</internalNodes>
          <leafValues>
            -4.2733415961265564e-01 2.9157033562660217e-01</leafValues></_>
        <_>
          <internalNodes>
            0 -1 160 -891867523 1934514285 1746097663 1920135775
            -1172800184 -92586416 -388432134 -92602369</internalNodes>
          <leafValues>
            -3.4319213032722473e-01 3.6976364254951477e-01</leafValues></_>
        <_>
          <internalNodes>
            0 -1 60 -255815504 -179805051 -111280165 -44443372
            -233996128 -1115647099 -1150291723 11604144</internalNodes>
          <leafValues>
            -5.5429309606552124e-01 2.2932650148868561e-01</leafValues></_></weakClassifiers></_>
    <!-- stage 17 -->
    <_>
      <maxWeakCount>13</maxWeakCount>
      <stageThreshold>-1.2205748260021210e-01</stageThreshold>
      <weakClassifiers>
        <_>
          <internalNodes>
            0 -1 76 135007308 -16974196 2129985276 -84875060 -569610740
            -92471348 -297472504 -355939128</internalNodes>
          <leafValues>
            1.8478260934352875e-01 9.3787318468093872e-01</leafValues></_>
        <_>
          <internalNodes>
            0 -1 92 -524556 -67114262 -1572868 -258 -2097164 -544769
            -146538652 -143266188</internalNodes>
          <leafValues>
            -2.1475315093994141e-01 7.5311976671218872e-01</leafValues></_>
        <_>
          <internalNodes>
            0 -1 71 1069265715 -2104321 939069723 -33554989 -1112670225
            -4194561 -17891685 -3155989</internalNodes>
          <leafValues>
            -3.7035298347473145e-01 5.5445337295532227e-01</leafValues></_>
        <_>
          <internalNodes>
            0 -1 141 -587005969 -584045041 -562700321 -16766194
            -117248837 -83679171 -100139009 -16568574</internalNodes>
          <leafValues>
            -3.9485442638397217e-01 4.9054610729217529e-01</leafValues></_>
        <_>
          <internalNodes>
            0 -1 0 -269484053 1221523950 -6562825 -3157545 1265631231
            72803563 1125611383 1442313975</internalNodes>
          <leafValues>
            -5.4526185989379883e-01 3.6155384778976440e-01</leafValues></_>
        <_>
          <internalNodes>
            0 -1 78 -23068673 -2108521 -184323753 -13411557 -152835329
            -1373805 -22283285 -1433731137</internalNodes>
          <leafValues>
            -4.4182541966438293e-01 4.1012698411941528e-01</leafValues></_>
        <_>
          <internalNodes>
            0 -1 24 -67897742 -4729990 -1857301797 -712025873 -15336704
            -11437071 -1431568405 -2360357</internalNodes>
          <leafValues>
            -4.8809275031089783e-01 3.2656753063201904e-01</leafValues></_>
        <_>
          <internalNodes>
            0 -1 126 -2113914508 -20916769 151934943 -35744772
            -1163035915 -70547266 -72602179 -233004</internalNodes>
          <leafValues>
            -5.7750666141510010e-01 2.1923112869262695e-01</leafValues></_>
        <_>
          <internalNodes>
            0 -1 171 -540020977 135915019 -1519012757 -2105088637
            1942828847 705268489 -1446134001 -75497473</internalNodes>
          <leafValues>
            -4.1159620881080627e-01 3.5362714529037476e-01</leafValues></_>
        <_>
          <internalNodes>
            0 -1 119 -84940081 -208859047 -530852613 1912722491
            1344237569 272244746 -213255169 -145823333</internalNodes>
          <leafValues>
            -4.1378414630889893e-01 3.1640452146530151e-01</leafValues></_>
        <_>
          <internalNodes>
            0 -1 105 -1372918185 3194928 -1374558755 -1386353153
            -341613835 540305969 967829756 213904107</internalNodes>
          <leafValues>
            -4.0775588154792786e-01 3.1669700145721436e-01</leafValues></_>
        <_>
          <internalNodes>
            0 -1 39 -612369413 -17837122 -1043467267 -83952910
            -2029260538 -67452925 -250645036 -18941968</internalNodes>
          <leafValues>
            -3.7680414319038391e-01 3.3967211842536926e-01</leafValues></_>
        <_>
          <internalNodes>
            0 -1 55 -1459704011 -287572769 1496145231 -278221350
            -285379787 -609498694 -105123979 -273678785</internalNodes>
          <leafValues>
            -3.6583191156387329e-01 3.3209002017974854e-01</leafValues></_></weakClassifiers></_>
    <!-- stage 18 -->
    <_>
      <maxWeakCount>14</maxWeakCount>
      <stageThreshold>-8.3553932607173920e-02</stageThreshold>
      <weakClassifiers>
        <_>
          <internalNodes>
            0 -1 139 52360 4509691 1787969498 -244130081 -202445586
            -23339042 -1159021906 -2097153</internalNodes>
          <leafValues>
            1.6824914515018463e-01 9.3745315074920654e-01</leafValues></_>
        <_>
          <internalNodes>
            0 -1 31 -325869 -83885310 -676002559 -548995038 2065632023
            -9238491 2004826931 -8427657</internalNodes>
          <leafValues>
            -6.1752293258905411e-02 7.6986527442932129e-01</leafValues></_>
        <_>
          <internalNodes>
            0 -1 49 -570567169 -715664495 -542386219 -581436961
            -787165697 -1917121141 -920150641 -1936721473</internalNodes>
          <leafValues>
            -2.2148847579956055e-01 6.4952838420867920e-01</leafValues></_>
        <_>
          <internalNodes>
            0 -1 155 -4735681 -1075861001 511294526 1065336255
            -1145062244 -54820167 -1467307992 -1430257761</internalNodes>
          <leafValues>
            -3.7059396505355835e-01 5.0683021545410156e-01</leafValues></_>
        <_>
          <internalNodes>
            0 -1 14 -112726529 -369043734 -935014581 -369048982
            -278925845 -399313165 -614998177 -280495105</internalNodes>
          <leafValues>
            -3.9429756999015808e-01 4.3018534779548645e-01</leafValues></_>
        <_>
          <internalNodes>
            0 -1 13 -336592981 -1563777630 1905370583 -143933093
            1106241535 1026698 1155883105 1171255683</internalNodes>
          <leafValues>
            -4.1340693831443787e-01 3.6891609430313110e-01</leafValues></_>
        <_>
          <internalNodes>
            0 -1 145 -200196 -44826348 -574840359 -82836644 -86184712
            -1162313568 -641815622 -1086657569</internalNodes>
          <leafValues>
            -4.3510213494300842e-01 3.0933734774589539e-01</leafValues></_>
        <_>
          <internalNodes>
            0 -1 97 -386421211 -438851843 1909428349 -637697281
            -243817627 -755859316 -6309257 -336646397</internalNodes>
          <leafValues>
            -4.2580443620681763e-01 3.3138903975486755e-01</leafValues></_>
        <_>
          <internalNodes>
            0 -1 124 -1359016385 -1359047329 -992556833 -287442489
            -73728203 -16012991 -1075074193 -335545345</internalNodes>
          <leafValues>
            -3.8338357210159302e-01 3.6947470903396606e-01</leafValues></_>
        <_>
          <internalNodes>
            0 -1 181 -488642045 39855622 9620182 2150114 1249051443
            580915210 1810748330 1650783078</internalNodes>
          <leafValues>
            -4.6541821956634521e-01 2.7510708570480347e-01</leafValues></_>
        <_>
          <internalNodes>
            0 -1 74 -1313607631 -268386176 353849717 -707428107
            -1279806797 -880639568 363032881 -976776715</internalNodes>
          <leafValues>
            -3.9641165733337402e-01 3.2751664519309998e-01</leafValues></_>
        <_>
          <internalNodes>
            0 -1 143 -141358950 -104654586 -662693668 -50066803
            -1123341654 -87422821 -591230306 -78509510</internalNodes>
          <leafValues>
            -3.9538639783859253e-01 3.1264114379882812e-01</leafValues></_>
        <_>
          <internalNodes>
            0 -1 178 -524305 -355736378 -1659380632 -535893488
            -615779426 -763706664 -772542256 -187173950</internalNodes>
          <leafValues>
            -3.8296070694923401e-01 3.1308034062385559e-01</leafValues></_>
        <_>
          <internalNodes>
            0 -1 122 -2115062 -688930360 37929672 1901766894 -212504316
            -262995936 -146472980 -10961959</internalNodes>
          <leafValues>
            -3.8240310549736023e-01 3.0869621038436890e-01</leafValues></_></weakClassifiers></_>
    <!-- stage 19 -->
    <_>
      <maxWeakCount>15</maxWeakCount>
      <stageThreshold>-1.3340772688388824e-01</stageThreshold>
      <weakClassifiers>
        <_>
          <internalNodes>
            0 -1 42 1069542074 992588066 2147483645 992686592 2142240255
            -8388697 2080374271 1060057898</internalNodes>
          <leafValues>
            1.0822108387947083e-01 9.3552637100219727e-01</leafValues></_>
        <_>
          <internalNodes>
            0 -1 113 1927477247 -235539461 -172770369 -22533 1527
            -1058872342 1166235647 1475827189</internalNodes>
          <leafValues>
            -6.4117781817913055e-02 7.6943832635879517e-01</leafValues></_>
        <_>
          <internalNodes>
            0 -1 158 -593505060 -54830508 -320887588 -1931488513
            -263325444 -1191210618 -2000060280 -1459623681</internalNodes>
          <leafValues>
            -4.1425883769989014e-01 4.9262145161628723e-01</leafValues></_>
        <_>
          <internalNodes>
            0 -1 36 -205848585 -2215204 -306458113 -1307436 -1344687381
            -5587236 -1075069953 -191147</internalNodes>
          <leafValues>
            -3.9516183733940125e-01 4.4513347744941711e-01</leafValues></_>
        <_>
          <internalNodes>
            0 -1 149 -570428113 -44067585 -1170879057 -71306981
            -286261455 -15108247 -90309761 -33</internalNodes>
          <leafValues>
            -3.4474432468414307e-01 4.9497792124748230e-01</leafValues></_>
        <_>
          <internalNodes>
            0 -1 87 -67898741 599492047 -1053822021 -144716801
            -235416129 1197650785 -205528385 -787573</internalNodes>
          <leafValues>
            -3.5781461000442505e-01 4.3350440263748169e-01</leafValues></_>
        <_>
          <internalNodes>
            0 -1 6 -354424049 13615367 -494780124 -471868009 1099121664
            20485 1081598304 1442315999</internalNodes>
          <leafValues>
            -4.7821009159088135e-01 3.0003261566162109e-01</leafValues></_>
        <_>
          <internalNodes>
            0 -1 129 1490092010 1360843727 -1409121485 1472975635
            -793727506 -573854817 -755961138 -4325493</internalNodes>
          <leafValues>
            -5.4390072822570801e-01 2.4638694524765015e-01</leafValues></_>
        <_>
          <internalNodes>
            0 -1 81 -537986053 -71130374 960824891 -138764288 876618482
            -973070302 442961691 1601381155</internalNodes>
          <leafValues>
            -4.0069657564163208e-01 3.3652758598327637e-01</leafValues></_>
        <_>
          <internalNodes>
            0 -1 40 -1578123469 -890649701 -504628361 -270535048
            -1414792213 -872772422 1607188451 -536881679</internalNodes>
          <leafValues>
            -3.1322938203811646e-01 4.1676267981529236e-01</leafValues></_>
        <_>
          <internalNodes>
            0 -1 104 -40894616 -79226805 -1085758644 924532742
            1966470261 892543409 -1271747076 620755967</internalNodes>
          <leafValues>
            -4.5824581384658813e-01 2.8531673550605774e-01</leafValues></_>
        <_>
          <internalNodes>
            0 -1 159 -134220557 1120069510 1630895248 1074843680
            -795892245 -2119049456 -672800704 -790373934</internalNodes>
          <leafValues>
            -4.3545323610305786e-01 2.7472361922264099e-01</leafValues></_>
        <_>
          <internalNodes>
            0 -1 61 857821488 -35886431 -40451643 -155247 445321457
            -1163262822 406051757 -1718809435</internalNodes>
          <leafValues>
            -5.2419370412826538e-01 2.2846926748752594e-01</leafValues></_>
        <_>
          <internalNodes>
            0 -1 95 -840963293 -1025579061 -369099469 -420133491
            633921937 84131880 -475293373 -36705540</internalNodes>
          <leafValues>
            -4.1693973541259766e-01 2.8950640559196472e-01</leafValues></_>
        <_>
          <internalNodes>
            0 -1 77 -1938288624 -1629574677 321269237 -1145531505
            -1177847519 -1349582303 -1442268259 -1162297416</internalNodes>
          <leafValues>
            -5.0359594821929932e-01 2.2693987190723419e-01</leafValues></_></weakClassifiers></_></stages>
  <features>
    <_>
      <rect>
        0 0 2 2</rect></_>
    <_>
      <rect>
        0 0 3 1</rect></_>
    <_>
      <rect>
        0 1 2 1</rect></_>
    <_>
      <rect>
        0 1 2 2</rect></_>
    <_>
      <rect>
        0 4 2 3</rect></_>
    <_>
      <rect>
        0 5 1 3</rect></_>
    <_>
      <rect>
        0 7 1 2</rect></_>
    <_>
      <rect>
        0 9 4 4</rect></_>
    <_>
      <rect>
        0 12 2 3</rect></_>
    <_>
      <rect>
        0 13 2 2</rect></_>
    <_>
      <rect>
        0 14 4 2</rect></_>
    <_>
      <rect>
        0 15 3 3</rect></_>
    <_>
      <rect>
        1 0 2 1</rect></_>
    <_>
      <rect>
        1 1 1 2</rect></_>
    <_>
      <rect>
        1 1 4 7</rect></_>
    <_>
      <rect>
        1 12 2 2</rect></_>
    <_>
      <rect>
        1 15 3 1</rect></_>
    <_>
      <rect>
        2 0 1 4</rect></_>
    <_>
      <rect>
        2 0 2 1</rect></_>
    <_>
      <rect>
        2 1 5 7</rect></_>
    <_>
      <rect>
        2 4 1 1</rect></_>
    <_>
      <rect>
        2 4 2 1</rect></_>
    <_>
      <rect>
        2 5 3 3</rect></_>
    <_>
      <rect>
        2 5 3 6</rect></_>
    <_>
      <rect>
        2 8 3 5</rect></_>
    <_>
      <rect>
        2 18 2 2</rect></_>
    <_>
      <rect>
        2 19 2 1</rect></_>
    <_>
      <rect>
        3 1 3 5</rect></_>
    <_>
      <rect>
        3 4 1 1</rect></_>
    <_>
      <rect>
        3 4 3 4</rect></_>
    <_>
      <rect>
        3 7 1 2</rect></_>
    <_>
      <rect>
        3 8 1 1</rect></_>
    <_>
      <rect>
        3 8 2 4</rect></_>
    <_>
      <rect>
        3 16 1 2</rect></_>
    <_>
      <rect>
        4 2 3 4</rect></_>
    <_>
      <rect>
        4 3 3 4</rect></_>
    <_>
      <rect>
        4 4 1 1</rect></_>
    <_>
      <rect>
        4 5 3 3</rect></_>
    <_>
      <rect>
        4 7 2 2</rect></_>
    <_>
      <rect>
        4 14 1 1</rect></_>
    <_>
      <rect>
        5 0 1 1</rect></_>
    <_>
      <rect>
        5 1 2 1</rect></_>
    <_>
      <rect>
        5 1 2 5</rect></_>
    <_>
      <rect>
        5 2 1 4</rect></_>
    <_>
      <rect>
        5 5 1 1</rect></_>
    <_>
      <rect>
        5 6 1 1</rect></_>
    <_>
      <rect>
        5 6 2 5</rect></_>
    <_>
      <rect>
        5 7 1 1</rect></_>
    <_>
      <rect>
        5 7 2 5</rect></_>
    <_>
      <rect>
        5 7 3 1</rect></_>
    <_>
      <rect>
        5 8 4 1</rect></_>
    <_>
      <rect>
        5 9 2 1</rect></_>
    <_>
      <rect>
        5 14 1 1</rect></_>
    <_>
      <rect>
        5 14 2 2</rect></_>
    <_>
      <rect>
        6 0 4 5</rect></_>
    <_>
      <rect>
        6 1 2 1</rect></_>
    <_>
      <rect>
        6 2 2 4</rect></_>
    <_>
      <rect>
        6 6 1 1</rect></_>
    <_>
      <rect>
        6 6 2 1</rect></_>
    <_>
      <rect>
        6 6 4 2</rect></_>
    <_>
      <rect>
        6 7 1 1</rect></_>
    <_>
      <rect>
        6 10 1 1</rect></_>
    <_>
      <rect>
        6 11 2 2</rect></_>
    <_>
      <rect>
        7 0 1 3</rect></_>
    <_>
      <rect>
        7 1 3 3</rect></_>
    <_>
      <rect>
        7 2 3 3</rect></_>
    <_>
      <rect>
        7 3 1 1</rect></_>
    <_>
      <rect>
        7 4 1 1</rect></_>
    <_>
      <rect>
        7 7 1 1</rect></_>
    <_>
      <rect>
        7 8 1 1</rect></_>
    <_>
      <rect>
        7 8 4 1</rect></_>
    <_>
      <rect>
        7 9 1 1</rect></_>
    <_>
      <rect>
        7 9 2 1</rect></_>
    <_>
      <rect>
        7 9 4 5</rect></_>
    <_>
      <rect>
        7 11 1 1</rect></_>
    <_>
      <rect>
        8 2 1 1</rect></_>
    <_>
      <rect>
        8 2 2 2</rect></_>
    <_>
      <rect>
        8 3 1 1</rect></_>
    <_>
      <rect>
        8 3 1 2</rect></_>
    <_>
      <rect>
        8 4 1 1</rect></_>
    <_>
      <rect>
        8 4 3 2</rect></_>
    <_>
      <rect>
        8 13 1 1</rect></_>
    <_>
      <rect>
        8 18 4 2</rect></_>
    <_>
      <rect>
        9 0 2 7</rect></_>
    <_>
      <rect>
        9 2 1 3</rect></_>
    <_>
      <rect>
        9 3 1 2</rect></_>
    <_>
      <rect>
        9 3 2 2</rect></_>
    <_>
      <rect>
        9 8 1 1</rect></_>
    <_>
      <rect>
        9 9 1 1</rect></_>
    <_>
      <rect>
        9 10 1 1</rect></_>
    <_>
      <rect>
        9 18 1 1</rect></_>
    <_>
      <rect>
        10 0 1 7</rect></_>
    <_>
      <rect>
        10 0 2 7</rect></_>
    <_>
      <rect>
        10 5 1 4</rect></_>
    <_>
      <rect>
        10 8 1 1</rect></_>
    <_>
      <rect>
        10 9 1 1</rect></_>
    <_>
      <rect>
        11 0 1 7</rect></_>
    <_>
      <rect>
        11 2 1 3</rect></_>
    <_>
      <rect>
        11 3 3 6</rect></_>
    <_>
      <rect>
        11 4 3 6</rect></_>
    <_>
      <rect>
        11 5 1 4</rect></_>
    <_>
      <rect>
        11 8 1 1</rect></_>
    <_>
      <rect>
        11 9 1 1</rect></_>
    <_>
      <rect>
        11 10 1 1</rect></_>
    <_>
      <rect>
        11 10 2 2</rect></_>
    <_>
      <rect>
        11 14 2 1</rect></_>
    <_>
      <rect>
        12 0 2 1</rect></_>
    <_>
      <rect>
        12 1 2 1</rect></_>
    <_>
      <rect>
        12 2 1 3</rect></_>
    <_>
      <rect>
        12 2 2 4</rect></_>
    <_>
      <rect>
        12 2 3 4</rect></_>
    <_>
      <rect>
        12 3 1 2</rect></_>
    <_>
      <rect>
        12 3 3 4</rect></_>
    <_>
      <rect>
        12 5 2 1</rect></_>
    <_>
      <rect>
        12 5 3 3</rect></_>
    <_>
      <rect>
        12 6 2 1</rect></_>
    <_>
      <rect>
        12 7 2 1</rect></_>
    <_>
      <rect>
        12 8 1 1</rect></_>
    <_>
      <rect>
        12 8 2 1</rect></_>
    <_>
      <rect>
        12 9 1 1</rect></_>
    <_>
      <rect>
        12 9 2 1</rect></_>
    <_>
      <rect>
        12 10 1 1</rect></_>
    <_>
      <rect>
        12 11 1 1</rect></_>
    <_>
      <rect>
        12 18 1 1</rect></_>
    <_>
      <rect>
        13 1 2 1</rect></_>
    <_>
      <rect>
        13 2 2 4</rect></_>
    <_>
      <rect>
        13 3 1 1</rect></_>
    <_>
      <rect>
        13 3 1 2</rect></_>
    <_>
      <rect>
        13 4 1 1</rect></_>
    <_>
      <rect>
        13 4 2 6</rect></_>
    <_>
      <rect>
        13 5 1 1</rect></_>
    <_>
      <rect>
        13 8 2 3</rect></_>
    <_>
      <rect>
        13 9 2 1</rect></_>
    <_>
      <rect>
        13 9 2 4</rect></_>
    <_>
      <rect>
        13 9 3 4</rect></_>
    <_>
      <rect>
        14 1 1 2</rect></_>
    <_>
      <rect>
        14 3 1 1</rect></_>
    <_>
      <rect>
        14 5 2 6</rect></_>
    <_>
      <rect>
        14 5 3 6</rect></_>
    <_>
      <rect>
        14 6 2 5</rect></_>
    <_>
      <rect>
        14 6 2 6</rect></_>
    <_>
      <rect>
        14 7 1 1</rect></_>
    <_>
      <rect>
        14 7 2 2</rect></_>
    <_>
      <rect>
        14 8 1 1</rect></_>
    <_>
      <rect>
        14 9 1 1</rect></_>
    <_>
      <rect>
        14 14 1 2</rect></_>
    <_>
      <rect>
        14 14 3 2</rect></_>
    <_>
      <rect>
        15 0 1 2</rect></_>
    <_>
      <rect>
        15 0 3 1</rect></_>
    <_>
      <rect>
        15 1 2 1</rect></_>
    <_>
      <rect>
        15 2 2 3</rect></_>
    <_>
      <rect>
        15 6 1 1</rect></_>
    <_>
      <rect>
        15 9 1 1</rect></_>
    <_>
      <rect>
        15 15 3 3</rect></_>
    <_>
      <rect>
        16 1 1 5</rect></_>
    <_>
      <rect>
        16 4 2 1</rect></_>
    <_>
      <rect>
        16 5 1 1</rect></_>
    <_>
      <rect>
        16 6 1 1</rect></_>
    <_>
      <rect>
        16 7 2 1</rect></_>
    <_>
      <rect>
        16 18 2 2</rect></_>
    <_>
      <rect>
        17 0 1 1</rect></_>
    <_>
      <rect>
        17 0 2 1</rect></_>
    <_>
      <rect>
        17 1 2 1</rect></_>
    <_>
      <rect>
        17 9 1 2</rect></_>
    <_>
      <rect>
        17 18 2 1</rect></_>
    <_>
      <rect>
        18 0 2 2</rect></_>
    <_>
      <rect>
        18 0 2 3</rect></_>
    <_>
      <rect>
        18 1 1 1</rect></_>
    <_>
      <rect>
        18 1 2 1</rect></_>
    <_>
      <rect>
        18 3 1 1</rect></_>
    <_>
      <rect>
        18 4 1 1</rect></_>
    <_>
      <rect>
        18 4 2 3</rect></_>
    <_>
      <rect>
        18 5 1 3</rect></_>
    <_>
      <rect>
        18 6 2 3</rect></_>
    <_>
      <rect>
        18 8 1 1</rect></_>
    <_>
      <rect>
        18 11 2 3</rect></_>
    <_>
      <rect>
        18 13 2 3</rect></_>
    <_>
      <rect>
        18 14 1 1</rect></_>
    <_>
      <rect>
        18 16 1 1</rect></_>
    <_>
      <rect>
        19 2 1 1</rect></_>
    <_>
      <rect>
        19 14 1 1</rect></_>
    <_>
      <rect>
        21 5 1 3</rect></_></features></cascade>
</opencv_storage>
